<?xml version="1.0"?>
<opencv_storage>
<cascade>
  <stageType>BOOST</stageType>
  <featureType>HAAR</featureType>
  <height>24</height>
  <width>24</width>
  <stageParams>
    <boostType>GAB</boostType>
    <minHitRate>9.9500000476837158e-01</minHitRate>
    <maxFalseAlarm>5.0000000000000000e-01</maxFalseAlarm>
    <weightTrimRate>9.4999998807907104e-01</weightTrimRate>
    <maxDepth>1</maxDepth>
    <maxWeakCount>100</maxWeakCount></stageParams>
  <featureParams>
    <maxCatCount>0</maxCatCount>
    <featSize>1</featSize>
    <mode>BASIC</mode></featureParams>
  <stageNum>8</stageNum>
  <stages>
    <!-- stage 0 -->
    <_>
      <maxWeakCount>2</maxWeakCount>
      <stageThreshold>-5.9681300073862076e-02</stageThreshold>
      <weakClassifiers>
        <_>
          <internalNodes>
            0 -1 15 1.9758680462837219e-01</internalNodes>
          <leafValues>
            -9.5580112934112549e-01 8.7610620260238647e-01</leafValues></_>
        <_>
          <internalNodes>
            0 -1 23 -6.2494188547134399e-02</internalNodes>
          <leafValues>
            8.9611983299255371e-01 -8.7639594078063965e-01</leafValues></_></weakClassifiers></_>
    <!-- stage 1 -->
    <_>
      <maxWeakCount>2</maxWeakCount>
      <stageThreshold>-1.3291759788990021e-01</stageThreshold>
      <weakClassifiers>
        <_>
          <internalNodes>
            0 -1 5 1.2385062128305435e-01</internalNodes>
          <leafValues>
            -9.7814208269119263e-01 9.4594591856002808e-01</leafValues></_>
        <_>
          <internalNodes>
            0 -1 1 1.4797332882881165e-01</internalNodes>
          <leafValues>
            -9.1736567020416260e-01 8.4522449970245361e-01</leafValues></_></weakClassifiers></_>
    <!-- stage 2 -->
    <_>
      <maxWeakCount>5</maxWeakCount>
      <stageThreshold>-8.3718305826187134e-01</stageThreshold>
      <weakClassifiers>
        <_>
          <internalNodes>
            0 -1 9 2.2658053040504456e-01</internalNodes>
          <leafValues>
            -7.2946858406066895e-01 8.8505744934082031e-01</leafValues></_>
        <_>
          <internalNodes>
            0 -1 19 2.3302471637725830e-01</internalNodes>
          <leafValues>
            -5.9533262252807617e-01 7.7669501304626465e-01</leafValues></_>
        <_>
          <internalNodes>
            0 -1 27 1.3072721660137177e-02</internalNodes>
          <leafValues>
            4.7736886143684387e-01 -8.9326030015945435e-01</leafValues></_>
        <_>
          <internalNodes>
            0 -1 20 4.7903880476951599e-02</internalNodes>
          <leafValues>
            -6.3952273130416870e-01 6.2776452302932739e-01</leafValues></_>
        <_>
          <internalNodes>
            0 -1 25 -3.9578098803758621e-02</internalNodes>
          <leafValues>
            8.2152599096298218e-01 -6.1751520633697510e-01</leafValues></_></weakClassifiers></_>
    <!-- stage 3 -->
    <_>
      <maxWeakCount>4</maxWeakCount>
      <stageThreshold>-1.1395469903945923e+00</stageThreshold>
      <weakClassifiers>
        <_>
          <internalNodes>
            0 -1 6 3.8275665044784546e-01</internalNodes>
          <leafValues>
            -7.5845408439636230e-01 9.5402300357818604e-01</leafValues></_>
        <_>
          <internalNodes>
            0 -1 16 3.8611930608749390e-01</internalNodes>
          <leafValues>
            -6.0605913400650024e-01 8.2971125841140747e-01</leafValues></_>
        <_>
          <internalNodes>
            0 -1 24 -7.9439930617809296e-02</internalNodes>
          <leafValues>
            8.5466647148132324e-01 -5.2355569601058960e-01</leafValues></_>
        <_>
          <internalNodes>
            0 -1 17 -3.6880861967802048e-02</internalNodes>
          <leafValues>
            7.7057045698165894e-01 -6.2970018386840820e-01</leafValues></_></weakClassifiers></_>
    <!-- stage 4 -->
    <_>
      <maxWeakCount>3</maxWeakCount>
      <stageThreshold>-7.3288750648498535e-01</stageThreshold>
      <weakClassifiers>
        <_>
          <internalNodes>
            0 -1 3 3.0204844474792480e-01</internalNodes>
          <leafValues>
            -6.2500000000000000e-01 9.4285714626312256e-01</leafValues></_>
        <_>
          <internalNodes>
            0 -1 14 2.9348963871598244e-03</internalNodes>
          <leafValues>
            7.0666259527206421e-01 -5.7406848669052124e-01</leafValues></_>
        <_>
          <internalNodes>
            0 -1 0 -8.5497368127107620e-03</internalNodes>
          <leafValues>
            -8.1455010175704956e-01 5.2082008123397827e-01</leafValues></_></weakClassifiers></_>
    <!-- stage 5 -->
    <_>
      <maxWeakCount>3</maxWeakCount>
      <stageThreshold>-6.3607048988342285e-01</stageThreshold>
      <weakClassifiers>
        <_>
          <internalNodes>
            0 -1 12 3.0410134792327881e-01</internalNodes>
          <leafValues>
            -5.9307360649108887e-01 1.</leafValues></_>
        <_>
          <internalNodes>
            0 -1 21 5.5424146354198456e-02</internalNodes>
          <leafValues>
            -5.7605004310607910e-01 7.6706564426422119e-01</leafValues></_>
        <_>
          <internalNodes>
            0 -1 2 -3.4493077546358109e-03</internalNodes>
          <leafValues>
            -8.1006252765655518e-01 6.2421822547912598e-01</leafValues></_></weakClassifiers></_>
    <!-- stage 6 -->
    <_>
      <maxWeakCount>5</maxWeakCount>
      <stageThreshold>-6.2001526355743408e-01</stageThreshold>
      <weakClassifiers>
        <_>
          <internalNodes>
            0 -1 8 2.7006655931472778e-01</internalNodes>
          <leafValues>
            -5.9821426868438721e-01 8.5714286565780640e-01</leafValues></_>
        <_>
          <internalNodes>
            0 -1 11 7.9140558838844299e-02</internalNodes>
          <leafValues>
            -5.2443206310272217e-01 6.7417675256729126e-01</leafValues></_>
        <_>
          <internalNodes>
            0 -1 26 -4.2802564799785614e-02</internalNodes>
          <leafValues>
            9.3991106748580933e-01 -4.6863946318626404e-01</leafValues></_>
        <_>
          <internalNodes>
            0 -1 13 3.8430176209658384e-03</internalNodes>
          <leafValues>
            6.4166712760925293e-01 -7.1409344673156738e-01</leafValues></_>
        <_>
          <internalNodes>
            0 -1 4 -5.2260882221162319e-03</internalNodes>
          <leafValues>
            -8.2208657264709473e-01 4.8675522208213806e-01</leafValues></_></weakClassifiers></_>
    <!-- stage 7 -->
    <_>
      <maxWeakCount>4</maxWeakCount>
      <stageThreshold>-1.0794706642627716e-01</stageThreshold>
      <weakClassifiers>
        <_>
          <internalNodes>
            0 -1 18 2.0009115338325500e-01</internalNodes>
          <leafValues>
            -6.8807339668273926e-01 1.</leafValues></_>
        <_>
          <internalNodes>
            0 -1 10 4.1212765499949455e-03</internalNodes>
          <leafValues>
            7.2694581747055054e-01 -7.7905058860778809e-01</leafValues></_>
        <_>
          <internalNodes>
            0 -1 7 -1.0106866247951984e-02</internalNodes>
          <leafValues>
            -9.2385721206665039e-01 6.0011059045791626e-01</leafValues></_>
        <_>
          <internalNodes>
            0 -1 22 -3.3441171050071716e-02</internalNodes>
          <leafValues>
            7.9918652772903442e-01 -7.4693012237548828e-01</leafValues></_></weakClassifiers></_></stages>
  <features>
    <_>
      <rects>
        <_>
          0 0 15 2 -1.</_>
        <_>
          5 0 5 2 3.</_></rects>
      <tilted>0</tilted></_>
    <_>
      <rects>
        <_>
          0 1 16 14 -1.</_>
        <_>
          8 1 8 14 2.</_></rects>
      <tilted>0</tilted></_>
    <_>
      <rects>
        <_>
          0 2 2 10 -1.</_>
        <_>
          0 7 2 5 2.</_></rects>
      <tilted>0</tilted></_>
    <_>
      <rects>
        <_>
          0 4 16 17 -1.</_>
        <_>
          8 4 8 17 2.</_></rects>
      <tilted>0</tilted></_>
    <_>
      <rects>
        <_>
          0 5 1 18 -1.</_>
        <_>
          0 14 1 9 2.</_></rects>
      <tilted>0</tilted></_>
    <_>
      <rects>
        <_>
          0 6 14 16 -1.</_>
        <_>
          7 6 7 16 2.</_></rects>
      <tilted>0</tilted></_>
    <_>
      <rects>
        <_>
          0 6 24 12 -1.</_>
        <_>
          8 6 8 12 3.</_></rects>
      <tilted>0</tilted></_>
    <_>
      <rects>
        <_>
          0 7 4 14 -1.</_>
        <_>
          2 7 2 14 2.</_></rects>
      <tilted>0</tilted></_>
    <_>
      <rects>
        <_>
          0 7 16 13 -1.</_>
        <_>
          8 7 8 13 2.</_></rects>
      <tilted>0</tilted></_>
    <_>
      <rects>
        <_>
          0 8 16 12 -1.</_>
        <_>
          8 8 8 12 2.</_></rects>
      <tilted>0</tilted></_>
    <_>
      <rects>
        <_>
          0 9 2 10 -1.</_>
        <_>
          0 14 2 5 2.</_></rects>
      <tilted>0</tilted></_>
    <_>
      <rects>
        <_>
          0 10 10 10 -1.</_>
        <_>
          5 10 5 10 2.</_></rects>
      <tilted>0</tilted></_>
    <_>
      <rects>
        <_>
          0 10 24 8 -1.</_>
        <_>
          8 10 8 8 3.</_></rects>
      <tilted>0</tilted></_>
    <_>
      <rects>
        <_>
          2 23 16 1 -1.</_>
        <_>
          10 23 8 1 2.</_></rects>
      <tilted>0</tilted></_>
    <_>
      <rects>
        <_>
          4 0 8 4 -1.</_>
        <_>
          8 0 4 4 2.</_></rects>
      <tilted>0</tilted></_>
    <_>
      <rects>
        <_>
          8 0 8 24 -1.</_>
        <_>
          8 8 8 8 3.</_></rects>
      <tilted>0</tilted></_>
    <_>
      <rects>
        <_>
          8 0 11 24 -1.</_>
        <_>
          8 8 11 8 3.</_></rects>
      <tilted>0</tilted></_>
    <_>
      <rects>
        <_>
          8 14 4 10 -1.</_>
        <_>
          8 19 4 5 2.</_></rects>
      <tilted>0</tilted></_>
    <_>
      <rects>
        <_>
          10 0 5 24 -1.</_>
        <_>
          10 8 5 8 3.</_></rects>
      <tilted>0</tilted></_>
    <_>
      <rects>
        <_>
          10 0 6 24 -1.</_>
        <_>
          10 8 6 8 3.</_></rects>
      <tilted>0</tilted></_>
    <_>
      <rects>
        <_>
          11 1 6 8 -1.</_>
        <_>
          11 5 6 4 2.</_></rects>
      <tilted>0</tilted></_>
    <_>
      <rects>
        <_>
          11 1 7 8 -1.</_>
        <_>
          11 5 7 4 2.</_></rects>
      <tilted>0</tilted></_>
    <_>
      <rects>
        <_>
          12 9 12 3 -1.</_>
        <_>
          18 9 6 3 2.</_></rects>
      <tilted>0</tilted></_>
    <_>
      <rects>
        <_>
          14 6 10 9 -1.</_>
        <_>
          19 6 5 9 2.</_></rects>
      <tilted>0</tilted></_>
    <_>
      <rects>
        <_>
          16 6 8 16 -1.</_>
        <_>
          20 6 4 16 2.</_></rects>
      <tilted>0</tilted></_>
    <_>
      <rects>
        <_>
          16 9 8 9 -1.</_>
        <_>
          20 9 4 9 2.</_></rects>
      <tilted>0</tilted></_>
    <_>
      <rects>
        <_>
          18 9 6 12 -1.</_>
        <_>
          21 9 3 12 2.</_></rects>
      <tilted>0</tilted></_>
    <_>
      <rects>
        <_>
          22 4 2 16 -1.</_>
        <_>
          22 12 2 8 2.</_></rects>
      <tilted>0</tilted></_></features></cascade>
</opencv_storage>
