<?xml version="1.0"?>
<opencv_storage>
<stage6>
  <maxWeakCount>5</maxWeakCount>
  <stageThreshold>-6.2001526355743408e-01</stageThreshold>
  <weakClassifiers>
    <_>
      <internalNodes>
        0 -1 7090 2.7006655931472778e-01</internalNodes>
      <leafValues>
        -5.9821426868438721e-01 8.5714286565780640e-01</leafValues></_>
    <_>
      <internalNodes>
        0 -1 9028 7.9140558838844299e-02</internalNodes>
      <leafValues>
        -5.2443206310272217e-01 6.7417675256729126e-01</leafValues></_>
    <_>
      <internalNodes>
        0 -1 154046 -4.2802564799785614e-02</internalNodes>
      <leafValues>
        9.3991106748580933e-01 -4.6863946318626404e-01</leafValues></_>
    <_>
      <internalNodes>
        0 -1 37976 3.8430176209658384e-03</internalNodes>
      <leafValues>
        6.4166712760925293e-01 -7.1409344673156738e-01</leafValues></_>
    <_>
      <internalNodes>
        0 -1 5023 -5.2260882221162319e-03</internalNodes>
      <leafValues>
        -8.2208657264709473e-01 4.8675522208213806e-01</leafValues></_></weakClassifiers></stage6>
</opencv_storage>
