<?xml version="1.0"?>
<opencv_storage>
<stage2>
  <maxWeakCount>5</maxWeakCount>
  <stageThreshold>-8.3718305826187134e-01</stageThreshold>
  <weakClassifiers>
    <_>
      <internalNodes>
        0 -1 7822 2.2658053040504456e-01</internalNodes>
      <leafValues>
        -7.2946858406066895e-01 8.8505744934082031e-01</leafValues></_>
    <_>
      <internalNodes>
        0 -1 107206 2.3302471637725830e-01</internalNodes>
      <leafValues>
        -5.9533262252807617e-01 7.7669501304626465e-01</leafValues></_>
    <_>
      <internalNodes>
        0 -1 161523 1.3072721660137177e-02</internalNodes>
      <leafValues>
        4.7736886143684387e-01 -8.9326030015945435e-01</leafValues></_>
    <_>
      <internalNodes>
        0 -1 115349 4.7903880476951599e-02</internalNodes>
      <leafValues>
        -6.3952273130416870e-01 6.2776452302932739e-01</leafValues></_>
    <_>
      <internalNodes>
        0 -1 146787 -3.9578098803758621e-02</internalNodes>
      <leafValues>
        8.2152599096298218e-01 -6.1751520633697510e-01</leafValues></_></weakClassifiers></stage2>
</opencv_storage>
