<?xml version="1.0"?>
<opencv_storage>
<cascade>
  <stageType>BOOST</stageType>
  <featureType>HAAR</featureType>
  <height>24</height>
  <width>24</width>
  <stageParams>
    <boostType>GAB</boostType>
    <minHitRate>9.9500000476837158e-01</minHitRate>
    <maxFalseAlarm>5.0000000000000000e-01</maxFalseAlarm>
    <weightTrimRate>9.4999998807907104e-01</weightTrimRate>
    <maxDepth>1</maxDepth>
    <maxWeakCount>100</maxWeakCount></stageParams>
  <featureParams>
    <maxCatCount>0</maxCatCount>
    <featSize>1</featSize>
    <mode>BASIC</mode></featureParams>
  <stageNum>5</stageNum>
  <stages>
    <!-- stage 0 -->
    <_>
      <maxWeakCount>3</maxWeakCount>
      <stageThreshold>-1.0055980682373047e+00</stageThreshold>
      <weakClassifiers>
        <_>
          <internalNodes>
            0 -1 1 7.6776690781116486e-02</internalNodes>
          <leafValues>
            -9.4545453786849976e-01 7.9259258508682251e-01</leafValues></_>
        <_>
          <internalNodes>
            0 -1 6 -9.0514205396175385e-02</internalNodes>
          <leafValues>
            8.3048301935195923e-01 -8.6002737283706665e-01</leafValues></_>
        <_>
          <internalNodes>
            0 -1 16 -6.6632099449634552e-02</internalNodes>
          <leafValues>
            7.9988390207290649e-01 -7.9456621408462524e-01</leafValues></_></weakClassifiers></_>
    <!-- stage 1 -->
    <_>
      <maxWeakCount>4</maxWeakCount>
      <stageThreshold>-1.6475877761840820e+00</stageThreshold>
      <weakClassifiers>
        <_>
          <internalNodes>
            0 -1 3 1.2391927838325500e-01</internalNodes>
          <leafValues>
            -8.6818182468414307e-01 5.4074072837829590e-01</leafValues></_>
        <_>
          <internalNodes>
            0 -1 10 -4.7904804348945618e-02</internalNodes>
          <leafValues>
            3.8060852885246277e-01 -7.2034657001495361e-01</leafValues></_>
        <_>
          <internalNodes>
            0 -1 2 3.0376840382814407e-02</internalNodes>
          <leafValues>
            -8.5208201408386230e-01 4.0055999159812927e-01</leafValues></_>
        <_>
          <internalNodes>
            0 -1 13 3.6786593496799469e-02</internalNodes>
          <leafValues>
            -5.5217814445495605e-01 7.9302263259887695e-01</leafValues></_></weakClassifiers></_>
    <!-- stage 2 -->
    <_>
      <maxWeakCount>4</maxWeakCount>
      <stageThreshold>-1.7622097730636597e+00</stageThreshold>
      <weakClassifiers>
        <_>
          <internalNodes>
            0 -1 18 -7.1245856583118439e-02</internalNodes>
          <leafValues>
            4.6774193644523621e-01 -8.1374722719192505e-01</leafValues></_>
        <_>
          <internalNodes>
            0 -1 14 -3.7295840680599213e-02</internalNodes>
          <leafValues>
            4.8668059706687927e-01 -6.9234704971313477e-01</leafValues></_>
        <_>
          <internalNodes>
            0 -1 4 1.3352841138839722e-01</internalNodes>
          <leafValues>
            -7.5771790742874146e-01 4.3497577309608459e-01</leafValues></_>
        <_>
          <internalNodes>
            0 -1 17 -3.8472928106784821e-02</internalNodes>
          <leafValues>
            4.2248696088790894e-01 -6.9109123945236206e-01</leafValues></_></weakClassifiers></_>
    <!-- stage 3 -->
    <_>
      <maxWeakCount>3</maxWeakCount>
      <stageThreshold>-1.2373203039169312e+00</stageThreshold>
      <weakClassifiers>
        <_>
          <internalNodes>
            0 -1 9 -7.1098841726779938e-02</internalNodes>
          <leafValues>
            3.4939759969711304e-01 -8.9731049537658691e-01</leafValues></_>
        <_>
          <internalNodes>
            0 -1 12 8.3743877708911896e-02</internalNodes>
          <leafValues>
            -7.2160184383392334e-01 4.7914025187492371e-01</leafValues></_>
        <_>
          <internalNodes>
            0 -1 8 1.6614836640655994e-03</internalNodes>
          <leafValues>
            3.8159209489822388e-01 -8.3725839853286743e-01</leafValues></_></weakClassifiers></_>
    <!-- stage 4 -->
    <_>
      <maxWeakCount>5</maxWeakCount>
      <stageThreshold>-1.0558897256851196e+00</stageThreshold>
      <weakClassifiers>
        <_>
          <internalNodes>
            0 -1 15 -1.0938516259193420e-01</internalNodes>
          <leafValues>
            1.3414634764194489e-01 -8.0535280704498291e-01</leafValues></_>
        <_>
          <internalNodes>
            0 -1 7 1.9587255083024502e-03</internalNodes>
          <leafValues>
            2.3620489239692688e-01 -8.1824678182601929e-01</leafValues></_>
        <_>
          <internalNodes>
            0 -1 0 -7.6056364923715591e-03</internalNodes>
          <leafValues>
            -8.9915919303894043e-01 2.5545793771743774e-01</leafValues></_>
        <_>
          <internalNodes>
            0 -1 5 1.9502525683492422e-03</internalNodes>
          <leafValues>
            2.1804483234882355e-01 -9.1845500469207764e-01</leafValues></_>
        <_>
          <internalNodes>
            0 -1 11 -3.1428490765392780e-03</internalNodes>
          <leafValues>
            -1. 1.9437247514724731e-01</leafValues></_></weakClassifiers></_></stages>
  <features>
    <_>
      <rects>
        <_>
          0 0 2 15 -1.</_>
        <_>
          0 5 2 5 3.</_></rects>
      <tilted>0</tilted></_>
    <_>
      <rects>
        <_>
          0 2 10 19 -1.</_>
        <_>
          5 2 5 19 2.</_></rects>
      <tilted>0</tilted></_>
    <_>
      <rects>
        <_>
          0 4 8 15 -1.</_>
        <_>
          4 4 4 15 2.</_></rects>
      <tilted>0</tilted></_>
    <_>
      <rects>
        <_>
          0 4 10 18 -1.</_>
        <_>
          5 4 5 18 2.</_></rects>
      <tilted>0</tilted></_>
    <_>
      <rects>
        <_>
          0 4 12 17 -1.</_>
        <_>
          6 4 6 17 2.</_></rects>
      <tilted>0</tilted></_>
    <_>
      <rects>
        <_>
          0 12 1 10 -1.</_>
        <_>
          0 17 1 5 2.</_></rects>
      <tilted>0</tilted></_>
    <_>
      <rects>
        <_>
          0 14 20 10 -1.</_>
        <_>
          0 19 20 5 2.</_></rects>
      <tilted>0</tilted></_>
    <_>
      <rects>
        <_>
          0 23 12 1 -1.</_>
        <_>
          6 23 6 1 2.</_></rects>
      <tilted>0</tilted></_>
    <_>
      <rects>
        <_>
          2 0 8 1 -1.</_>
        <_>
          6 0 4 1 2.</_></rects>
      <tilted>0</tilted></_>
    <_>
      <rects>
        <_>
          2 16 20 8 -1.</_>
        <_>
          2 20 20 4 2.</_></rects>
      <tilted>0</tilted></_>
    <_>
      <rects>
        <_>
          3 18 18 6 -1.</_>
        <_>
          3 21 18 3 2.</_></rects>
      <tilted>0</tilted></_>
    <_>
      <rects>
        <_>
          4 0 4 4 -1.</_>
        <_>
          6 0 2 4 2.</_></rects>
      <tilted>0</tilted></_>
    <_>
      <rects>
        <_>
          4 0 18 10 -1.</_>
        <_>
          4 5 18 5 2.</_></rects>
      <tilted>0</tilted></_>
    <_>
      <rects>
        <_>
          6 4 3 14 -1.</_>
        <_>
          6 11 3 7 2.</_></rects>
      <tilted>0</tilted></_>
    <_>
      <rects>
        <_>
          10 10 4 14 -1.</_>
        <_>
          10 17 4 7 2.</_></rects>
      <tilted>0</tilted></_>
    <_>
      <rects>
        <_>
          14 4 10 18 -1.</_>
        <_>
          19 4 5 18 2.</_></rects>
      <tilted>0</tilted></_>
    <_>
      <rects>
        <_>
          14 5 10 17 -1.</_>
        <_>
          19 5 5 17 2.</_></rects>
      <tilted>0</tilted></_>
    <_>
      <rects>
        <_>
          16 3 8 20 -1.</_>
        <_>
          20 3 4 20 2.</_></rects>
      <tilted>0</tilted></_>
    <_>
      <rects>
        <_>
          16 5 8 15 -1.</_>
        <_>
          20 5 4 15 2.</_></rects>
      <tilted>0</tilted></_></features></cascade>
</opencv_storage>
