<?xml version="1.0"?>
<opencv_storage>
<cascade>
  <stageType>BOOST</stageType>
  <featureType>HAAR</featureType>
  <height>24</height>
  <width>24</width>
  <stageParams>
    <boostType>GAB</boostType>
    <minHitRate>9.9500000476837158e-01</minHitRate>
    <maxFalseAlarm>5.0000000000000000e-01</maxFalseAlarm>
    <weightTrimRate>9.4999998807907104e-01</weightTrimRate>
    <maxDepth>1</maxDepth>
    <maxWeakCount>100</maxWeakCount></stageParams>
  <featureParams>
    <maxCatCount>0</maxCatCount>
    <featSize>1</featSize>
    <mode>BASIC</mode></featureParams>
  <stageNum>2</stageNum>
  <stages>
    <!-- stage 0 -->
    <_>
      <maxWeakCount>2</maxWeakCount>
      <stageThreshold>-4.9460146576166153e-02</stageThreshold>
      <weakClassifiers>
        <_>
          <internalNodes>
            0 -1 2 -1.2709574401378632e-01</internalNodes>
          <leafValues>
            9.4117647409439087e-01 -9.9097067117691040e-01</leafValues></_>
        <_>
          <internalNodes>
            0 -1 4 1.1094600707292557e-01</internalNodes>
          <leafValues>
            -9.9063664674758911e-01 9.5841675996780396e-01</leafValues></_></weakClassifiers></_>
    <!-- stage 1 -->
    <_>
      <maxWeakCount>3</maxWeakCount>
      <stageThreshold>-1.1459991931915283e+00</stageThreshold>
      <weakClassifiers>
        <_>
          <internalNodes>
            0 -1 1 2.0322896540164948e-01</internalNodes>
          <leafValues>
            -9.6428573131561279e-01 8.6206895112991333e-01</leafValues></_>
        <_>
          <internalNodes>
            0 -1 3 -1.2095233798027039e-01</internalNodes>
          <leafValues>
            8.0493807792663574e-01 -9.1335296630859375e-01</leafValues></_>
        <_>
          <internalNodes>
            0 -1 0 1.7360173165798187e-01</internalNodes>
          <leafValues>
            -9.6685719490051270e-01 7.3163950443267822e-01</leafValues></_></weakClassifiers></_></stages>
  <features>
    <_>
      <rects>
        <_>
          0 5 16 14 -1.</_>
        <_>
          8 5 8 14 2.</_></rects>
      <tilted>0</tilted></_>
    <_>
      <rects>
        <_>
          1 8 16 9 -1.</_>
        <_>
          9 8 8 9 2.</_></rects>
      <tilted>0</tilted></_>
    <_>
      <rects>
        <_>
          7 10 10 14 -1.</_>
        <_>
          7 17 10 7 2.</_></rects>
      <tilted>0</tilted></_>
    <_>
      <rects>
        <_>
          8 4 16 10 -1.</_>
        <_>
          8 4 8 5 2.</_>
        <_>
          16 9 8 5 2.</_></rects>
      <tilted>0</tilted></_>
    <_>
      <rects>
        <_>
          8 4 12 10 -1.</_>
        <_>
          8 9 12 5 2.</_></rects>
      <tilted>0</tilted></_></features></cascade>
</opencv_storage>
